digraph Tree {
node [shape=box, style="rounded", color="black", fontname=helvetica] ;
edge [fontname=helvetica] ;
0 [label="alcohol <= 11.2\nmse = 0.7\nsamples = 758\nvalue = 5.6"] ;
1 [label="sulphates <= 0.6\nmse = 0.5\nsamples = 590\nvalue = 5.4"] ;
0 -> 1 [labeldistance=2.5, labelangle=45, headlabel="True"] ;
2 [label="volatile acidity <= 0.8\nmse = 0.4\nsamples = 238\nvalue = 5.1"] ;
1 -> 2 ;
3 [label="alcohol <= 11.1\nmse = 0.3\nsamples = 204\nvalue = 5.2"] ;
2 -> 3 ;
4 [label="mse = 0.3\nsamples = 203\nvalue = 5.2"] ;
3 -> 4 ;
5 [label="mse = 0.0\nsamples = 1\nvalue = 4.0"] ;
3 -> 5 ;
6 [label="free sulfur dioxide <= 5.5\nmse = 0.6\nsamples = 34\nvalue = 4.5"] ;
2 -> 6 ;
7 [label="mse = 0.5\nsamples = 8\nvalue = 3.6"] ;
6 -> 7 ;
8 [label="mse = 0.3\nsamples = 26\nvalue = 4.8"] ;
6 -> 8 ;
9 [label="alcohol <= 9.9\nmse = 0.5\nsamples = 352\nvalue = 5.6"] ;
1 -> 9 ;
10 [label="fixed acidity <= 11.1\nmse = 0.4\nsamples = 159\nvalue = 5.4"] ;
9 -> 10 ;
11 [label="mse = 0.4\nsamples = 147\nvalue = 5.3"] ;
10 -> 11 ;
12 [label="mse = 0.6\nsamples = 12\nvalue = 6.1"] ;
10 -> 12 ;
13 [label="chlorides <= 0.1\nmse = 0.5\nsamples = 193\nvalue = 5.9"] ;
9 -> 13 ;
14 [label="mse = 0.5\nsamples = 185\nvalue = 5.9"] ;
13 -> 14 ;
15 [label="mse = 0.3\nsamples = 8\nvalue = 4.9"] ;
13 -> 15 ;
16 [label="sulphates <= 0.6\nmse = 0.6\nsamples = 168\nvalue = 6.2"] ;
0 -> 16 [labeldistance=2.5, labelangle=-45, headlabel="False"] ;
17 [label="residual sugar <= 10.6\nmse = 0.5\nsamples = 61\nvalue = 5.9"] ;
16 -> 17 ;
18 [label="volatile acidity <= 0.6\nmse = 0.4\nsamples = 60\nvalue = 5.9"] ;
17 -> 18 ;
19 [label="mse = 0.3\nsamples = 39\nvalue = 6.1"] ;
18 -> 19 ;
20 [label="mse = 0.3\nsamples = 21\nvalue = 5.6"] ;
18 -> 20 ;
21 [label="mse = 0.0\nsamples = 1\nvalue = 4.0"] ;
17 -> 21 ;
22 [label="alcohol <= 11.4\nmse = 0.5\nsamples = 107\nvalue = 6.5"] ;
16 -> 22 ;
23 [label="total sulfur dioxide <= 61.5\nmse = 0.5\nsamples = 25\nvalue = 6.1"] ;
22 -> 23 ;
24 [label="mse = 0.3\nsamples = 22\nvalue = 6.2"] ;
23 -> 24 ;
25 [label="mse = 0.2\nsamples = 3\nvalue = 4.8"] ;
23 -> 25 ;
26 [label="pH <= 3.4\nmse = 0.5\nsamples = 82\nvalue = 6.6"] ;
22 -> 26 ;
27 [label="mse = 0.3\nsamples = 51\nvalue = 6.8"] ;
26 -> 27 ;
28 [label="mse = 0.5\nsamples = 31\nvalue = 6.4"] ;
26 -> 28 ;
}