digraph Tree {
node [shape=box, style="rounded", color="black", fontname=helvetica] ;
edge [fontname=helvetica] ;
0 [label="alcohol <= 9.9\nmse = 0.6\nsamples = 762\nvalue = 5.6"] ;
1 [label="volatile acidity <= 0.5\nmse = 0.4\nsamples = 319\nvalue = 5.2"] ;
0 -> 1 [labeldistance=2.5, labelangle=45, headlabel="True"] ;
2 [label="free sulfur dioxide <= 22.5\nmse = 0.4\nsamples = 135\nvalue = 5.4"] ;
1 -> 2 ;
3 [label="alcohol <= 9.7\nmse = 0.4\nsamples = 101\nvalue = 5.6"] ;
2 -> 3 ;
4 [label="mse = 0.3\nsamples = 77\nvalue = 5.4"] ;
3 -> 4 ;
5 [label="mse = 0.5\nsamples = 24\nvalue = 5.9"] ;
3 -> 5 ;
6 [label="fixed acidity <= 10.3\nmse = 0.2\nsamples = 34\nvalue = 5.0"] ;
2 -> 6 ;
7 [label="mse = 0.1\nsamples = 32\nvalue = 5.1"] ;
6 -> 7 ;
8 [label="mse = 0.2\nsamples = 2\nvalue = 3.7"] ;
6 -> 8 ;
9 [label="chlorides <= 0.1\nmse = 0.3\nsamples = 184\nvalue = 5.1"] ;
1 -> 9 ;
10 [label="fixed acidity <= 7.1\nmse = 1.0\nsamples = 2\nvalue = 3.8"] ;
9 -> 10 ;
11 [label="mse = 0.0\nsamples = 1\nvalue = 5.0"] ;
10 -> 11 ;
12 [label="mse = 0.0\nsamples = 1\nvalue = 3.0"] ;
10 -> 12 ;
13 [label="fixed acidity <= 11.2\nmse = 0.3\nsamples = 182\nvalue = 5.1"] ;
9 -> 13 ;
14 [label="mse = 0.2\nsamples = 181\nvalue = 5.1"] ;
13 -> 14 ;
15 [label="mse = 0.0\nsamples = 1\nvalue = 3.0"] ;
13 -> 15 ;
16 [label="alcohol <= 11.6\nmse = 0.6\nsamples = 443\nvalue = 5.9"] ;
0 -> 16 [labeldistance=2.5, labelangle=-45, headlabel="False"] ;
17 [label="volatile acidity <= 0.8\nmse = 0.6\nsamples = 330\nvalue = 5.7"] ;
16 -> 17 ;
18 [label="sulphates <= 0.7\nmse = 0.5\nsamples = 307\nvalue = 5.8"] ;
17 -> 18 ;
19 [label="mse = 0.4\nsamples = 170\nvalue = 5.6"] ;
18 -> 19 ;
20 [label="mse = 0.5\nsamples = 137\nvalue = 6.0"] ;
18 -> 20 ;
21 [label="residual sugar <= 3.9\nmse = 0.8\nsamples = 23\nvalue = 4.6"] ;
17 -> 21 ;
22 [label="mse = 0.4\nsamples = 20\nvalue = 4.9"] ;
21 -> 22 ;
23 [label="mse = 0.8\nsamples = 3\nvalue = 3.6"] ;
21 -> 23 ;
24 [label="sulphates <= 0.6\nmse = 0.4\nsamples = 113\nvalue = 6.4"] ;
16 -> 24 ;
25 [label="pH <= 3.3\nmse = 0.4\nsamples = 41\nvalue = 6.0"] ;
24 -> 25 ;
26 [label="mse = 0.2\nsamples = 13\nvalue = 6.5"] ;
25 -> 26 ;
27 [label="mse = 0.3\nsamples = 28\nvalue = 5.8"] ;
25 -> 27 ;
28 [label="total sulfur dioxide <= 43.5\nmse = 0.3\nsamples = 72\nvalue = 6.6"] ;
24 -> 28 ;
29 [label="mse = 0.2\nsamples = 47\nvalue = 6.7"] ;
28 -> 29 ;
30 [label="mse = 0.4\nsamples = 25\nvalue = 6.4"] ;
28 -> 30 ;
}